digraph Tree {
node [shape=box, style="filled", color="black"] ;
0 [label="LSTAT <= 9.725\nmse = 81.081\nsamples = 354\nvalue = 22.488", fillcolor="#f5cfb4"] ;
1 [label="RM <= 7.435\nmse = 78.714\nsamples = 144\nvalue = 29.715", fillcolor="#f0b68c"] ;
0 -> 1 [labeldistance=2.5, labelangle=45, headlabel="True"] ;
2 [label="RM <= 6.797\nmse = 42.639\nsamples = 125\nvalue = 27.394", fillcolor="#f2be99"] ;
1 -> 2 ;
3 [label="AGE <= 84.6\nmse = 32.819\nsamples = 88\nvalue = 25.075", fillcolor="#f3c6a6"] ;
2 -> 3 ;
4 [label="RM <= 6.428\nmse = 10.892\nsamples = 78\nvalue = 24.017", fillcolor="#f4caac"] ;
3 -> 4 ;
5 [label="RM <= 6.053\nmse = 6.135\nsamples = 44\nvalue = 22.195", fillcolor="#f5d0b6"] ;
4 -> 5 ;
6 [label="mse = 7.38\nsamples = 14\nvalue = 19.986", fillcolor="#f7d8c2"] ;
5 -> 6 ;
7 [label="LSTAT <= 6.735\nmse = 2.212\nsamples = 30\nvalue = 23.227", fillcolor="#f5cdb0"] ;
5 -> 7 ;
8 [label="mse = 1.387\nsamples = 14\nvalue = 23.864", fillcolor="#f4caac"] ;
7 -> 8 ;
9 [label="mse = 2.267\nsamples = 16\nvalue = 22.669", fillcolor="#f5cfb3"] ;
7 -> 9 ;
10 [label="PTRATIO <= 18.35\nmse = 7.201\nsamples = 34\nvalue = 26.374", fillcolor="#f2c29f"] ;
4 -> 10 ;
11 [label="mse = 7.557\nsamples = 17\nvalue = 27.653", fillcolor="#f1bd98"] ;
10 -> 11 ;
12 [label="mse = 3.571\nsamples = 17\nvalue = 25.094", fillcolor="#f3c6a6"] ;
10 -> 12 ;
13 [label="mse = 126.968\nsamples = 10\nvalue = 33.33", fillcolor="#edaa79"] ;
3 -> 13 ;
14 [label="LSTAT <= 5.415\nmse = 22.77\nsamples = 37\nvalue = 32.911", fillcolor="#eeab7b"] ;
2 -> 14 ;
15 [label="ZN <= 27.0\nmse = 20.021\nsamples = 22\nvalue = 34.768", fillcolor="#eca571"] ;
14 -> 15 ;
16 [label="mse = 24.648\nsamples = 11\nvalue = 36.764", fillcolor="#eb9e66"] ;
15 -> 16 ;
17 [label="mse = 7.431\nsamples = 11\nvalue = 32.773", fillcolor="#eeab7c"] ;
15 -> 17 ;
18 [label="mse = 14.321\nsamples = 15\nvalue = 30.187", fillcolor="#f0b48a"] ;
14 -> 18 ;
19 [label="mse = 47.634\nsamples = 19\nvalue = 44.979", fillcolor="#e58139"] ;
1 -> 19 ;
20 [label="LSTAT <= 16.21\nmse = 22.34\nsamples = 210\nvalue = 17.533", fillcolor="#f9e0cf"] ;
0 -> 20 [labeldistance=2.5, labelangle=-45, headlabel="False"] ;
21 [label="LSTAT <= 14.795\nmse = 10.347\nsamples = 115\nvalue = 20.39", fillcolor="#f7d7bf"] ;
20 -> 21 ;
22 [label="PTRATIO <= 18.65\nmse = 9.161\nsamples = 99\nvalue = 20.79", fillcolor="#f6d5bd"] ;
21 -> 22 ;
23 [label="RM <= 6.043\nmse = 9.476\nsamples = 42\nvalue = 21.821", fillcolor="#f6d2b8"] ;
22 -> 23 ;
24 [label="TAX <= 300.0\nmse = 5.931\nsamples = 24\nvalue = 20.683", fillcolor="#f6d6be"] ;
23 -> 24 ;
25 [label="mse = 3.912\nsamples = 11\nvalue = 21.909", fillcolor="#f6d1b7"] ;
24 -> 25 ;
26 [label="mse = 5.293\nsamples = 13\nvalue = 19.646", fillcolor="#f7d9c4"] ;
24 -> 26 ;
27 [label="mse = 10.173\nsamples = 18\nvalue = 23.339", fillcolor="#f5ccaf"] ;
23 -> 27 ;
28 [label="DIS <= 4.137\nmse = 7.567\nsamples = 57\nvalue = 20.03", fillcolor="#f7d8c1"] ;
22 -> 28 ;
29 [label="AGE <= 68.55\nmse = 7.411\nsamples = 42\nvalue = 20.738", fillcolor="#f6d5be"] ;
28 -> 29 ;
30 [label="mse = 6.408\nsamples = 15\nvalue = 21.94", fillcolor="#f6d1b7"] ;
29 -> 30 ;
31 [label="NOX <= 0.606\nmse = 6.721\nsamples = 27\nvalue = 20.07", fillcolor="#f7d8c1"] ;
29 -> 31 ;
32 [label="mse = 4.787\nsamples = 13\nvalue = 19.062", fillcolor="#f8dbc7"] ;
31 -> 32 ;
33 [label="mse = 6.694\nsamples = 14\nvalue = 21.007", fillcolor="#f6d4bc"] ;
31 -> 33 ;
34 [label="mse = 2.664\nsamples = 15\nvalue = 18.047", fillcolor="#f8dfcc"] ;
28 -> 34 ;
35 [label="mse = 10.559\nsamples = 16\nvalue = 17.912", fillcolor="#f8dfcd"] ;
21 -> 35 ;
36 [label="DIS <= 2.004\nmse = 15.019\nsamples = 95\nvalue = 14.075", fillcolor="#fbede2"] ;
20 -> 36 ;
37 [label="TAX <= 551.5\nmse = 10.93\nsamples = 48\nvalue = 11.779", fillcolor="#fdf5ef"] ;
36 -> 37 ;
38 [label="mse = 2.871\nsamples = 11\nvalue = 15.082", fillcolor="#fae9dc"] ;
37 -> 38 ;
39 [label="NOX <= 0.675\nmse = 9.12\nsamples = 37\nvalue = 10.797", fillcolor="#fef8f4"] ;
37 -> 39 ;
40 [label="mse = 11.472\nsamples = 12\nvalue = 12.85", fillcolor="#fcf1e9"] ;
39 -> 40 ;
41 [label="CRIM <= 10.753\nmse = 4.997\nsamples = 25\nvalue = 9.812", fillcolor="#fefbf9"] ;
39 -> 41 ;
42 [label="mse = 5.03\nsamples = 11\nvalue = 11.145", fillcolor="#fdf7f2"] ;
41 -> 42 ;
43 [label="mse = 2.477\nsamples = 14\nvalue = 8.764", fillcolor="#ffffff"] ;
41 -> 43 ;
44 [label="CRIM <= 0.767\nmse = 8.317\nsamples = 47\nvalue = 16.419", fillcolor="#fae4d5"] ;
36 -> 44 ;
45 [label="mse = 6.193\nsamples = 16\nvalue = 18.831", fillcolor="#f8dcc8"] ;
44 -> 45 ;
46 [label="LSTAT <= 18.24\nmse = 4.861\nsamples = 31\nvalue = 15.174", fillcolor="#fae9dc"] ;
44 -> 46 ;
47 [label="mse = 4.456\nsamples = 17\nvalue = 16.124", fillcolor="#fae5d7"] ;
46 -> 47 ;
48 [label="mse = 2.929\nsamples = 14\nvalue = 14.021", fillcolor="#fbede2"] ;
46 -> 48 ;
}