digraph Tree {
node [shape=box, style="filled", color="black"] ;
0 [label="LSTAT <= 9.725\nmse = 81.081\nsamples = 354\nvalue = 22.488", fillcolor="#f5cfb4"] ;
1 [label="RM <= 7.435\nmse = 78.714\nsamples = 144\nvalue = 29.715", fillcolor="#f0b68c"] ;
0 -> 1 [labeldistance=2.5, labelangle=45, headlabel="True"] ;
2 [label="RM <= 6.797\nmse = 42.639\nsamples = 125\nvalue = 27.394", fillcolor="#f2be99"] ;
1 -> 2 ;
3 [label="AGE <= 83.45\nmse = 32.819\nsamples = 88\nvalue = 25.075", fillcolor="#f3c6a6"] ;
2 -> 3 ;
4 [label="RM <= 6.428\nmse = 11.031\nsamples = 77\nvalue = 24.022", fillcolor="#f4caac"] ;
3 -> 4 ;
5 [label="RM <= 6.053\nmse = 6.231\nsamples = 43\nvalue = 22.163", fillcolor="#f5d0b6"] ;
4 -> 5 ;
6 [label="mse = 7.38\nsamples = 14\nvalue = 19.986", fillcolor="#f7d8c2"] ;
5 -> 6 ;
7 [label="mse = 2.283\nsamples = 29\nvalue = 23.214", fillcolor="#f5cdb0"] ;
5 -> 7 ;
8 [label="PTRATIO <= 18.35\nmse = 7.201\nsamples = 34\nvalue = 26.374", fillcolor="#f2c29f"] ;
4 -> 8 ;
9 [label="mse = 7.557\nsamples = 17\nvalue = 27.653", fillcolor="#f1bd98"] ;
8 -> 9 ;
10 [label="mse = 3.571\nsamples = 17\nvalue = 25.094", fillcolor="#f3c6a6"] ;
8 -> 10 ;
11 [label="mse = 123.25\nsamples = 11\nvalue = 32.445", fillcolor="#eead7e"] ;
3 -> 11 ;
12 [label="LSTAT <= 5.415\nmse = 22.77\nsamples = 37\nvalue = 32.911", fillcolor="#eeab7b"] ;
2 -> 12 ;
13 [label="mse = 20.021\nsamples = 22\nvalue = 34.768", fillcolor="#eca571"] ;
12 -> 13 ;
14 [label="mse = 14.321\nsamples = 15\nvalue = 30.187", fillcolor="#f0b48a"] ;
12 -> 14 ;
15 [label="mse = 47.634\nsamples = 19\nvalue = 44.979", fillcolor="#e58139"] ;
1 -> 15 ;
16 [label="LSTAT <= 16.21\nmse = 22.34\nsamples = 210\nvalue = 17.533", fillcolor="#f9e0cf"] ;
0 -> 16 [labeldistance=2.5, labelangle=-45, headlabel="False"] ;
17 [label="LSTAT <= 14.795\nmse = 10.347\nsamples = 115\nvalue = 20.39", fillcolor="#f7d7bf"] ;
16 -> 17 ;
18 [label="PTRATIO <= 18.65\nmse = 9.161\nsamples = 99\nvalue = 20.79", fillcolor="#f6d5bd"] ;
17 -> 18 ;
19 [label="RM <= 6.043\nmse = 9.476\nsamples = 42\nvalue = 21.821", fillcolor="#f6d2b8"] ;
18 -> 19 ;
20 [label="CRIM <= 0.142\nmse = 5.931\nsamples = 24\nvalue = 20.683", fillcolor="#f6d6be"] ;
19 -> 20 ;
21 [label="mse = 5.703\nsamples = 11\nvalue = 21.809", fillcolor="#f6d2b8"] ;
20 -> 21 ;
22 [label="mse = 4.145\nsamples = 13\nvalue = 19.731", fillcolor="#f7d9c3"] ;
20 -> 22 ;
23 [label="mse = 10.173\nsamples = 18\nvalue = 23.339", fillcolor="#f5ccaf"] ;
19 -> 23 ;
24 [label="DIS <= 4.137\nmse = 7.567\nsamples = 57\nvalue = 20.03", fillcolor="#f7d8c1"] ;
18 -> 24 ;
25 [label="AGE <= 68.55\nmse = 7.411\nsamples = 42\nvalue = 20.738", fillcolor="#f6d5be"] ;
24 -> 25 ;
26 [label="mse = 6.408\nsamples = 15\nvalue = 21.94", fillcolor="#f6d1b7"] ;
25 -> 26 ;
27 [label="mse = 6.721\nsamples = 27\nvalue = 20.07", fillcolor="#f7d8c1"] ;
25 -> 27 ;
28 [label="mse = 2.664\nsamples = 15\nvalue = 18.047", fillcolor="#f8dfcc"] ;
24 -> 28 ;
29 [label="mse = 10.559\nsamples = 16\nvalue = 17.912", fillcolor="#f8dfcd"] ;
17 -> 29 ;
30 [label="DIS <= 2.004\nmse = 15.019\nsamples = 95\nvalue = 14.075", fillcolor="#fbede2"] ;
16 -> 30 ;
31 [label="SEVEN <= 0.5\nmse = 10.93\nsamples = 48\nvalue = 11.779", fillcolor="#fdf5ef"] ;
30 -> 31 ;
32 [label="mse = 2.871\nsamples = 11\nvalue = 15.082", fillcolor="#fae9dc"] ;
31 -> 32 ;
33 [label="NOX <= 0.675\nmse = 9.12\nsamples = 37\nvalue = 10.797", fillcolor="#fef8f4"] ;
31 -> 33 ;
34 [label="mse = 11.472\nsamples = 12\nvalue = 12.85", fillcolor="#fcf1e9"] ;
33 -> 34 ;
35 [label="CRIM <= 10.753\nmse = 4.997\nsamples = 25\nvalue = 9.812", fillcolor="#fefbf9"] ;
33 -> 35 ;
36 [label="mse = 5.03\nsamples = 11\nvalue = 11.145", fillcolor="#fdf7f2"] ;
35 -> 36 ;
37 [label="mse = 2.477\nsamples = 14\nvalue = 8.764", fillcolor="#ffffff"] ;
35 -> 37 ;
38 [label="CRIM <= 0.767\nmse = 8.317\nsamples = 47\nvalue = 16.419", fillcolor="#fae4d5"] ;
30 -> 38 ;
39 [label="mse = 6.193\nsamples = 16\nvalue = 18.831", fillcolor="#f8dcc8"] ;
38 -> 39 ;
40 [label="LSTAT <= 18.24\nmse = 4.861\nsamples = 31\nvalue = 15.174", fillcolor="#fae9dc"] ;
38 -> 40 ;
41 [label="mse = 4.456\nsamples = 17\nvalue = 16.124", fillcolor="#fae5d7"] ;
40 -> 41 ;
42 [label="mse = 2.929\nsamples = 14\nvalue = 14.021", fillcolor="#fbede2"] ;
40 -> 42 ;
}